digraph Tree {
node [shape=box] ;
0 [label="petal length (cm) <= 2.45\nentropy = 1.582\nsamples = 105\nvalue = [38, 34, 33]"] ;
1 [label="entropy = 0.0\nsamples = 38\nvalue = [38, 0, 0]"] ;
0 -> 1 [labeldistance=2.5, labelangle=45, headlabel="True"] ;
2 [label="petal length (cm) <= 4.8\nentropy = 1.0\nsamples = 67\nvalue = [0, 34, 33]"] ;
0 -> 2 [labeldistance=2.5, labelangle=-45, headlabel="False"] ;
3 [label="entropy = 0.0\nsamples = 32\nvalue = [0, 32, 0]"] ;
2 -> 3 ;
4 [label="petal width (cm) <= 1.7\nentropy = 0.316\nsamples = 35\nvalue = [0, 2, 33]"] ;
2 -> 4 ;
5 [label="sepal width (cm) <= 2.55\nentropy = 1.0\nsamples = 4\nvalue = [0, 2, 2]"] ;
4 -> 5 ;
6 [label="entropy = 0.0\nsamples = 1\nvalue = [0, 1, 0]"] ;
5 -> 6 ;
7 [label="petal width (cm) <= 1.55\nentropy = 0.918\nsamples = 3\nvalue = [0, 1, 2]"] ;
5 -> 7 ;
8 [label="entropy = 0.0\nsamples = 2\nvalue = [0, 0, 2]"] ;
7 -> 8 ;
9 [label="entropy = 0.0\nsamples = 1\nvalue = [0, 1, 0]"] ;
7 -> 9 ;
10 [label="entropy = 0.0\nsamples = 31\nvalue = [0, 0, 31]"] ;
4 -> 10 ;
}